<?xml version="1.0"?>
<PMML version="4.4.1" xmlns="http://www.dmg.org/PMML-4_4" xmlns:xsi="http://www.w3.org/2001/XMLSchema-instance" xsi:schemaLocation="http://www.dmg.org/PMML-4_4 http://www.dmg.org/pmml/v4-4/pmml-4-4.xsd">
 <Header copyright="Copyright (c) 2021 rstudio-user" description="Linear Regression Model">
  <Extension name="user" value="rstudio-user" extender="SoftwareAG PMML Generator"/>
  <Application name="SoftwareAG PMML Generator" version="2.4.0"/>
  <Timestamp>2021-05-18 13:14:08</Timestamp>
 </Header>
 <DataDictionary numberOfFields="2">
  <DataField name="Sales" optype="continuous" dataType="double"/>
  <DataField name="Newspaper" optype="continuous" dataType="double"/>
 </DataDictionary>
 <RegressionModel modelName="lm_Model" functionName="regression" algorithmName="least squares">
  <MiningSchema>
   <MiningField name="Sales" usageType="predicted" invalidValueTreatment="returnInvalid"/>
   <MiningField name="Newspaper" usageType="active" invalidValueTreatment="returnInvalid"/>
  </MiningSchema>
  <Output>
   <OutputField name="Predicted_Sales" optype="continuous" dataType="double" feature="predictedValue"/>
  </Output>
  <RegressionTable intercept="12.3514070692782">
   <NumericPredictor name="Newspaper" exponent="1" coefficient="0.0546930984722734"/>
  </RegressionTable>
 </RegressionModel>
</PMML>
